~o
<STREAMINFO> 1 39
<VECSIZE> 39<NULLD><MFCC_D_A_0><DIAGC>
~h "hai"
<BEGINHMM>
<NUMSTATES> 5
<STATE> 2
<MEAN> 39
 -1.329150e+01 7.288715e+00 4.895125e+00 2.993752e+00 2.080209e+00 3.736994e+00 1.706025e+00 1.193481e+01 1.547627e+00 1.134347e+01 4.292203e+00 1.828840e+00 6.486547e+01 -5.473325e-02 -5.196900e-02 -3.097541e-02 -3.164735e-03 -1.062498e-01 -1.238201e-01 -1.120920e-02 -4.982026e-02 -8.546393e-02 -5.097784e-02 -3.402991e-02 -5.595509e-02 5.427660e-02 1.702053e-02 1.050280e-03 7.535141e-03 -4.136538e-04 1.418050e-02 -1.681145e-02 -1.220716e-03 -9.499158e-03 2.700968e-03 -3.807132e-02 -9.079462e-03 2.050276e-02 -4.229326e-02
<VARIANCE> 39
 6.941469e-01 2.128321e+00 4.434243e+00 3.592586e+00 7.787644e+00 4.292850e+00 4.743585e+00 1.392509e+01 6.165351e+00 5.615438e+00 4.653938e+00 4.284733e+00 1.238509e+00 4.993825e-02 7.555092e-02 1.890250e-01 1.971635e-01 5.682333e-01 4.555338e-01 6.439651e-01 3.609741e-01 5.240785e-01 4.479258e-01 3.810433e-01 3.486311e-01 5.101012e-02 3.010052e-02 1.277825e-02 3.724214e-02 3.719162e-02 1.022871e-01 1.136123e-01 1.491872e-01 1.306648e-01 8.999054e-02 1.129736e-01 7.757708e-02 8.232275e-02 3.835272e-02
<GCONST> 3.542216e+01
<STATE> 3
<MEAN> 39
 -1.518077e+01 4.917894e+00 2.365685e+00 -1.725126e+00 -2.188996e+00 -1.751712e+00 -2.923469e+00 5.549003e+00 -3.251839e+00 6.334760e+00 2.947476e-01 -2.718065e+00 6.478878e+01 -3.827730e-02 -4.124020e-02 6.340434e-02 -7.852617e-03 1.244545e-02 -5.751413e-02 -1.416762e-02 6.708151e-02 -3.370035e-03 -1.636736e-02 1.891956e-03 -1.405368e-02 -6.793101e-02 -4.604760e-03 -8.744854e-03 -1.119064e-02 -2.024126e-03 -8.555653e-03 4.081736e-03 -2.014753e-02 -2.727202e-02 2.119837e-02 5.603037e-03 2.420244e-03 1.238159e-03 7.004336e-03
<VARIANCE> 39
 1.378516e+00 2.112854e+00 2.368353e+00 3.684902e+00 7.711991e+00 5.354994e+00 5.522902e+00 9.355928e+00 7.746660e+00 7.900466e+00 7.542078e+00 6.914708e+00 5.218648e-01 8.999059e-02 1.453836e-01 1.523661e-01 2.209416e-01 6.090626e-01 5.403913e-01 6.606992e-01 1.139585e+00 6.313628e-01 8.428390e-01 8.055696e-01 4.269020e-01 1.185969e-01 1.417719e-02 2.545515e-02 3.657048e-02 3.196592e-02 1.203402e-01 1.108522e-01 1.596195e-01 1.804951e-01 1.343788e-01 1.633454e-01 1.630193e-01 6.837995e-02 2.010041e-02
<GCONST> 4.227813e+01
<STATE> 4
<MEAN> 39
 -1.524030e+01 4.905580e+00 2.416328e+00 5.178410e-01 -2.319393e+00 -2.152927e+00 -2.738476e+00 5.378008e+00 -2.102535e+00 5.681335e+00 3.426659e-01 -2.612524e+00 6.519794e+01 1.275874e-01 1.084080e-01 -3.044947e-02 4.113329e-01 9.009156e-03 -5.863705e-02 -5.093551e-01 -8.367273e-02 -1.874754e-01 -4.230846e-01 -2.583736e-01 1.584229e-01 2.021287e-01 1.099764e-01 1.579445e-01 7.378894e-02 -2.701518e-02 1.073600e-01 2.393441e-01 -4.218864e-02 1.903057e-01 -7.976921e-02 8.188495e-02 -3.816235e-02 7.949352e-02 2.393425e-03
<VARIANCE> 39
 1.409473e+00 1.860862e+00 3.133281e+00 1.683846e+01 1.808229e+01 2.208507e+01 1.415174e+01 5.072237e+00 5.367036e+00 4.567130e+00 9.351248e+00 8.506362e+00 1.553735e+00 2.196104e-01 2.730076e-01 4.988783e-01 6.962420e-01 1.508096e+00 1.950237e+00 3.535458e-01 3.743984e-01 8.533961e-01 8.546883e-01 4.093069e-01 2.412087e-01 1.227460e-01 2.830094e-02 1.673480e-02 6.704254e-02 1.108843e-01 2.444357e-01 1.480351e-01 1.557610e-01 7.638595e-02 1.294388e-01 2.106638e-01 5.438723e-02 2.735087e-02 3.436443e-02
<GCONST> 5.155251e+01
<TRANSP> 5
 0.000000e+00 1.000000e+00 0.000000e+00 0.000000e+00 0.000000e+00
 0.000000e+00 9.393008e-01 6.069915e-02 0.000000e+00 0.000000e+00
 0.000000e+00 0.000000e+00 9.261494e-01 7.385063e-02 0.000000e+00
 0.000000e+00 0.000000e+00 0.000000e+00 6.342908e-01 3.657092e-01
 0.000000e+00 0.000000e+00 0.000000e+00 0.000000e+00 0.000000e+00
<ENDHMM>
~o
<STREAMINFO> 1 39
<VECSIZE> 39<NULLD><MFCC_D_A_0><DIAGC>
~h "iie"
<BEGINHMM>
<NUMSTATES> 5
<STATE> 2
<MEAN> 39
 -1.479330e+01 5.468429e+00 2.469949e+00 -9.725501e-01 -1.767316e+00 -1.696706e+00 -3.473858e+00 6.463144e+00 -3.574275e+00 6.216675e+00 8.541314e-01 -1.938516e+00 6.461258e+01 4.067763e-02 3.822775e-02 1.031228e-02 1.483769e-01 1.277561e-01 -3.057250e-02 4.659245e-02 1.746610e-01 -4.938948e-02 -6.843340e-02 -8.524632e-02 -8.792590e-02 1.848932e-02 1.100355e-02 1.431794e-02 2.741811e-03 -4.109152e-02 -1.428817e-02 1.885114e-02 2.169600e-02 -1.076622e-02 1.954565e-04 3.563173e-02 2.376924e-02 8.904349e-02 -1.331333e-02
<VARIANCE> 39
 1.684051e+00 3.216676e+00 3.606405e+00 1.261795e+01 1.375953e+01 8.233453e+00 7.301343e+00 1.606189e+01 1.023746e+01 1.356805e+01 1.001995e+01 6.016876e+00 4.820577e-01 1.230862e-01 2.280006e-01 2.592906e-01 5.421564e-01 7.813150e-01 6.029923e-01 3.019780e-01 1.410284e+00 7.794287e-01 1.164409e+00 9.274267e-01 6.471756e-01 6.141106e-02 2.347473e-02 4.439988e-02 4.667814e-02 1.123109e-01 1.250914e-01 1.215791e-01 6.567641e-02 2.857871e-01 1.659542e-01 2.434227e-01 2.002027e-01 1.433384e-01 1.306803e-02
<GCONST> 5.306683e+01
<STATE> 3
<MEAN> 39
 -1.283248e+01 8.072435e+00 4.589338e+00 2.801761e+00 2.096775e+00 3.873492e+00 4.312618e-01 1.240911e+01 -2.796648e-01 1.099157e+01 4.185821e+00 1.889649e+00 6.506203e+01 -2.285244e-02 -2.317446e-02 -4.761720e-02 -9.276254e-02 -5.351118e-02 2.178046e-03 -1.644309e-02 -1.112119e-01 -3.005215e-02 -5.017625e-02 -3.383610e-02 7.731490e-02 1.710632e-02 5.503765e-04 -3.140957e-03 6.377211e-03 -3.158201e-03 -1.098616e-02 -5.399507e-03 -1.322406e-02 -2.230443e-02 -1.701377e-02 -3.617690e-03 2.641011e-03 -5.873807e-03 2.778080e-03
<VARIANCE> 39
 6.911775e-01 1.188368e+00 1.925218e+00 3.727895e+00 5.704824e+00 3.641952e+00 3.324832e+00 6.859795e+00 6.447942e+00 4.781631e+00 3.946388e+00 3.550174e+00 5.095625e-01 4.005573e-02 9.743330e-02 1.378694e-01 3.254683e-01 3.613555e-01 2.525144e-01 2.876695e-01 4.919105e-01 3.759034e-01 5.312298e-01 4.806000e-01 4.021809e-01 3.725453e-02 6.132106e-03 1.795303e-02 2.886571e-02 5.510197e-02 5.830632e-02 5.237542e-02 5.415133e-02 9.932071e-02 5.823796e-02 1.079763e-01 8.659617e-02 7.514135e-02 6.861738e-03
<GCONST> 2.380189e+01
<STATE> 4
<MEAN> 39
 -1.444272e+01 5.830984e+00 2.278302e+00 -8.200859e-01 -1.220556e+00 3.461371e-01 -2.491249e+00 6.533897e+00 -2.625822e+00 7.442780e+00 1.749157e+00 -7.617553e-01 6.505068e+01 -2.131820e-02 -7.630935e-02 2.469727e-02 -1.637811e-03 -2.634076e-02 3.567239e-02 5.729144e-02 -2.806642e-02 -9.638079e-03 -7.838269e-02 3.469523e-03 -1.980554e-02 9.818642e-03 -3.006382e-03 -8.091128e-04 2.411841e-02 4.843152e-02 2.293012e-02 -3.466733e-02 2.162901e-02 3.368526e-04 -4.170096e-02 4.079117e-03 2.128647e-02 -2.117763e-02 5.884906e-03
<VARIANCE> 39
 1.540010e+00 2.504737e+00 3.307596e+00 6.210479e+00 1.480727e+01 1.634719e+01 7.776620e+00 1.276219e+01 7.779370e+00 7.122427e+00 7.377284e+00 6.895221e+00 8.260959e-01 8.570923e-02 1.819409e-01 4.530887e-01 3.143643e-01 5.309901e-01 6.534398e-01 8.444682e-01 1.173972e+00 6.314363e-01 4.085181e-01 7.570040e-01 5.423201e-01 6.192362e-02 1.535867e-02 3.520367e-02 9.227824e-02 3.489504e-02 6.225074e-02 1.174576e-01 1.775667e-01 2.487849e-01 1.135592e-01 7.440234e-02 1.602324e-01 1.004423e-01 1.333487e-02
<GCONST> 4.716605e+01
<TRANSP> 5
 0.000000e+00 1.000000e+00 0.000000e+00 0.000000e+00 0.000000e+00
 0.000000e+00 8.999998e-01 1.000002e-01 0.000000e+00 0.000000e+00
 0.000000e+00 0.000000e+00 9.570047e-01 4.299527e-02 0.000000e+00
 0.000000e+00 0.000000e+00 0.000000e+00 9.148327e-01 8.516735e-02
 0.000000e+00 0.000000e+00 0.000000e+00 0.000000e+00 0.000000e+00
<ENDHMM>
~o
<STREAMINFO> 1 39
<VECSIZE> 39<NULLD><MFCC_D_A_0><DIAGC>
~h "sil"
<BEGINHMM>
<NUMSTATES> 5
<STATE> 2
<MEAN> 39
 -1.004386e+01 5.901868e+00 3.442977e+00 2.901241e+00 1.350446e+00 3.455218e+00 4.772643e-01 8.665266e+00 2.179473e-01 8.102433e+00 3.019053e+00 1.141274e+00 6.298009e+01 5.478505e-01 5.063967e-01 4.597449e-01 -1.958244e-02 2.633210e-02 -3.676306e-01 3.048484e-01 1.826651e-01 1.596974e-01 1.493665e-01 -4.769088e-02 3.834293e-01 -1.074636e+00 -1.868438e-01 -1.673705e-01 -1.604429e-01 -6.070691e-02 2.574080e-03 9.517229e-02 -1.288534e-01 -1.910669e-02 8.975742e-03 -4.398768e-02 -2.404837e-02 -1.206120e-01 3.301798e-01
<VARIANCE> 39
 5.308165e+01 8.391582e+00 9.396944e+00 1.350426e+01 1.791228e+01 1.971039e+01 1.978082e+01 1.227821e+01 2.316297e+01 7.748649e+00 1.233442e+01 1.137345e+01 5.127745e+01 1.973318e+00 1.143057e+00 1.490104e+00 7.814128e-01 1.129128e+00 9.535142e-01 1.282148e+00 7.093661e-01 1.074107e+00 6.722386e-01 5.682850e-01 8.348058e-01 4.732815e+00 1.795280e-01 1.431628e-01 2.585738e-01 1.268186e-01 1.542102e-01 1.146921e-01 2.126467e-01 1.282391e-01 1.607623e-01 1.101421e-01 1.052868e-01 9.834906e-02 4.697842e-01
<GCONST> 8.540233e+01
<STATE> 3
<MEAN> 39
 3.896722e+00 6.647137e+00 5.686563e+00 6.779783e+00 6.486722e+00 7.473444e+00 7.061523e+00 8.316445e+00 7.206622e+00 7.693229e+00 6.443581e+00 6.020191e+00 4.915114e+01 -4.439503e-02 3.246478e-02 -4.226277e-03 -1.365346e-02 1.170276e-02 3.244242e-03 -1.002603e-02 2.594352e-03 -1.403274e-02 1.480194e-02 3.031978e-04 -6.846698e-03 1.718695e-02 -8.217333e-02 8.452957e-03 -1.103079e-02 -1.535850e-02 1.202086e-03 -1.983813e-03 -2.487779e-02 8.094369e-03 -3.952897e-02 4.170312e-03 1.198538e-02 -2.407216e-02 6.708356e-02
<VARIANCE> 39
 2.773659e+01 2.265386e-01 3.021381e-01 3.209377e+00 3.522834e+00 4.516611e+00 7.392673e+00 2.421227e-01 7.458747e+00 4.474753e-01 2.925288e+00 2.832147e+00 1.971068e+01 6.540406e-02 5.341088e-02 8.678139e-03 1.181669e-02 4.666507e-02 2.225763e-02 2.952276e-02 7.870220e-02 4.953554e-02 5.624246e-02 4.224777e-02 1.587425e-02 1.997482e-02 6.627470e-02 1.082520e-02 7.489716e-03 8.668993e-03 8.021155e-03 1.086365e-02 8.856622e-03 2.641120e-02 2.420808e-02 6.153924e-03 1.381100e-02 7.346224e-03 4.462428e-02
<GCONST> -1.745361e+01
<STATE> 4
<MEAN> 39
 -1.422649e+01 5.897547e+00 3.450965e+00 -4.135579e-01 -7.631965e-01 -5.296641e-01 -1.995503e+00 7.567482e+00 -1.580726e+00 7.670588e+00 1.721301e+00 -5.162449e-01 6.442592e+01 -1.167650e-01 -2.391899e-03 -1.181494e-02 -3.446369e-02 -4.789217e-02 -2.870859e-02 -5.519114e-02 1.367550e-02 -4.937029e-02 2.607758e-02 -2.461559e-02 -5.563179e-02 1.091023e-01 1.305605e-02 -1.166551e-02 -7.135084e-03 8.393744e-03 4.511333e-03 3.858899e-03 7.570031e-03 1.621955e-03 1.092970e-02 -9.965627e-03 -6.408145e-03 1.258200e-03 -7.287763e-03
<VARIANCE> 39
 6.099635e+00 3.546299e+00 4.705076e+00 7.897606e+00 1.469913e+01 1.217603e+01 1.380277e+01 1.581751e+01 1.152589e+01 1.125621e+01 1.110597e+01 9.784586e+00 4.750823e+00 4.800822e-01 1.980202e-01 2.991732e-01 3.908145e-01 7.624786e-01 5.402271e-01 8.080915e-01 8.969709e-01 7.637815e-01 7.244198e-01 7.593026e-01 6.843644e-01 3.338099e-01 4.789485e-02 3.794577e-02 5.695253e-02 6.717067e-02 1.246130e-01 1.010487e-01 1.655447e-01 1.781232e-01 1.495939e-01 1.454871e-01 1.572605e-01 1.393292e-01 3.493823e-02
<GCONST> 6.122272e+01
<TRANSP> 5
 0.000000e+00 1.000000e+00 0.000000e+00 0.000000e+00 0.000000e+00
 0.000000e+00 7.930987e-01 2.069013e-01 0.000000e+00 0.000000e+00
 0.000000e+00 0.000000e+00 8.965547e-01 1.034453e-01 0.000000e+00
 0.000000e+00 0.000000e+00 0.000000e+00 9.753760e-01 2.462397e-02
 0.000000e+00 0.000000e+00 0.000000e+00 0.000000e+00 0.000000e+00
<ENDHMM>
