~o
<STREAMINFO> 1 39
<VECSIZE> 39<NULLD><MFCC_D_A_0><DIAGC>
~h "hai"
<BEGINHMM>
<NUMSTATES> 5
<STATE> 2
<MEAN> 39
 -1.329150e+01 7.288715e+00 4.895125e+00 2.993752e+00 2.080209e+00 3.736994e+00 1.706025e+00 1.193481e+01 1.547627e+00 1.134347e+01 4.292203e+00 1.828840e+00 6.486547e+01 -5.473325e-02 -5.196900e-02 -3.097541e-02 -3.164735e-03 -1.062498e-01 -1.238201e-01 -1.120920e-02 -4.982026e-02 -8.546393e-02 -5.097784e-02 -3.402991e-02 -5.595509e-02 5.427660e-02 1.702053e-02 1.050280e-03 7.535141e-03 -4.136538e-04 1.418050e-02 -1.681145e-02 -1.220716e-03 -9.499158e-03 2.700968e-03 -3.807132e-02 -9.079462e-03 2.050276e-02 -4.229326e-02
<VARIANCE> 39
 6.941469e-01 2.128321e+00 4.434243e+00 3.592586e+00 7.787644e+00 4.292850e+00 4.743585e+00 1.392509e+01 6.165351e+00 5.615438e+00 4.653938e+00 4.284733e+00 1.238509e+00 4.993825e-02 7.555092e-02 1.890250e-01 1.971635e-01 5.682333e-01 4.555338e-01 6.439651e-01 3.609741e-01 5.240785e-01 4.479258e-01 3.810433e-01 3.486311e-01 5.101012e-02 3.010052e-02 1.277825e-02 3.724214e-02 3.719162e-02 1.022871e-01 1.136123e-01 1.491872e-01 1.306648e-01 8.999054e-02 1.129736e-01 7.757708e-02 8.232275e-02 3.835272e-02
<GCONST> 3.542216e+01
<STATE> 3
<MEAN> 39
 -1.518077e+01 4.917894e+00 2.365685e+00 -1.725126e+00 -2.188996e+00 -1.751712e+00 -2.923469e+00 5.549003e+00 -3.251839e+00 6.334760e+00 2.947476e-01 -2.718065e+00 6.478878e+01 -3.827730e-02 -4.124020e-02 6.340434e-02 -7.852617e-03 1.244545e-02 -5.751413e-02 -1.416762e-02 6.708151e-02 -3.370035e-03 -1.636736e-02 1.891956e-03 -1.405368e-02 -6.793101e-02 -4.604760e-03 -8.744854e-03 -1.119064e-02 -2.024126e-03 -8.555653e-03 4.081736e-03 -2.014753e-02 -2.727202e-02 2.119837e-02 5.603037e-03 2.420244e-03 1.238159e-03 7.004336e-03
<VARIANCE> 39
 1.378516e+00 2.112854e+00 2.368353e+00 3.684902e+00 7.711991e+00 5.354994e+00 5.522902e+00 9.355928e+00 7.746660e+00 7.900466e+00 7.542078e+00 6.914708e+00 5.218648e-01 8.999059e-02 1.453836e-01 1.523661e-01 2.209416e-01 6.090626e-01 5.403913e-01 6.606992e-01 1.139585e+00 6.313628e-01 8.428390e-01 8.055696e-01 4.269020e-01 1.185969e-01 1.417719e-02 2.545515e-02 3.657048e-02 3.196592e-02 1.203402e-01 1.108522e-01 1.596195e-01 1.804951e-01 1.343788e-01 1.633454e-01 1.630193e-01 6.837995e-02 2.010041e-02
<GCONST> 4.227813e+01
<STATE> 4
<MEAN> 39
 -1.524030e+01 4.905580e+00 2.416328e+00 5.178410e-01 -2.319393e+00 -2.152927e+00 -2.738476e+00 5.378008e+00 -2.102535e+00 5.681335e+00 3.426659e-01 -2.612524e+00 6.519794e+01 1.275874e-01 1.084080e-01 -3.044947e-02 4.113329e-01 9.009156e-03 -5.863705e-02 -5.093551e-01 -8.367273e-02 -1.874754e-01 -4.230846e-01 -2.583736e-01 1.584229e-01 2.021287e-01 1.099764e-01 1.579445e-01 7.378894e-02 -2.701518e-02 1.073600e-01 2.393441e-01 -4.218864e-02 1.903057e-01 -7.976921e-02 8.188495e-02 -3.816235e-02 7.949352e-02 2.393425e-03
<VARIANCE> 39
 1.409473e+00 1.860862e+00 3.133281e+00 1.683846e+01 1.808229e+01 2.208507e+01 1.415174e+01 5.072237e+00 5.367036e+00 4.567130e+00 9.351248e+00 8.506362e+00 1.553735e+00 2.196104e-01 2.730076e-01 4.988783e-01 6.962420e-01 1.508096e+00 1.950237e+00 3.535458e-01 3.743984e-01 8.533961e-01 8.546883e-01 4.093069e-01 2.412087e-01 1.227460e-01 2.830094e-02 1.673480e-02 6.704254e-02 1.108843e-01 2.444357e-01 1.480351e-01 1.557610e-01 7.638595e-02 1.294388e-01 2.106638e-01 5.438723e-02 2.735087e-02 3.436443e-02
<GCONST> 5.155251e+01
<TRANSP> 5
 0.000000e+00 1.000000e+00 0.000000e+00 0.000000e+00 0.000000e+00
 0.000000e+00 9.393008e-01 6.069915e-02 0.000000e+00 0.000000e+00
 0.000000e+00 0.000000e+00 9.261494e-01 7.385063e-02 0.000000e+00
 0.000000e+00 0.000000e+00 0.000000e+00 6.342908e-01 3.657092e-01
 0.000000e+00 0.000000e+00 0.000000e+00 0.000000e+00 0.000000e+00
<ENDHMM>
