~o
<STREAMINFO> 1 39
<VECSIZE> 39<NULLD><MFCC_D_A_0><DIAGC>
~h "iie"
<BEGINHMM>
<NUMSTATES> 5
<STATE> 2
<MEAN> 39
 -1.479330e+01 5.468429e+00 2.469949e+00 -9.725501e-01 -1.767316e+00 -1.696706e+00 -3.473858e+00 6.463144e+00 -3.574275e+00 6.216675e+00 8.541314e-01 -1.938516e+00 6.461258e+01 4.067763e-02 3.822775e-02 1.031228e-02 1.483769e-01 1.277561e-01 -3.057250e-02 4.659245e-02 1.746610e-01 -4.938948e-02 -6.843340e-02 -8.524632e-02 -8.792590e-02 1.848932e-02 1.100355e-02 1.431794e-02 2.741811e-03 -4.109152e-02 -1.428817e-02 1.885114e-02 2.169600e-02 -1.076622e-02 1.954565e-04 3.563173e-02 2.376924e-02 8.904349e-02 -1.331333e-02
<VARIANCE> 39
 1.684051e+00 3.216676e+00 3.606405e+00 1.261795e+01 1.375953e+01 8.233453e+00 7.301343e+00 1.606189e+01 1.023746e+01 1.356805e+01 1.001995e+01 6.016876e+00 4.820577e-01 1.230862e-01 2.280006e-01 2.592906e-01 5.421564e-01 7.813150e-01 6.029923e-01 3.019780e-01 1.410284e+00 7.794287e-01 1.164409e+00 9.274267e-01 6.471756e-01 6.141106e-02 2.347473e-02 4.439988e-02 4.667814e-02 1.123109e-01 1.250914e-01 1.215791e-01 6.567641e-02 2.857871e-01 1.659542e-01 2.434227e-01 2.002027e-01 1.433384e-01 1.306803e-02
<GCONST> 5.306683e+01
<STATE> 3
<MEAN> 39
 -1.283248e+01 8.072435e+00 4.589338e+00 2.801761e+00 2.096775e+00 3.873492e+00 4.312618e-01 1.240911e+01 -2.796648e-01 1.099157e+01 4.185821e+00 1.889649e+00 6.506203e+01 -2.285244e-02 -2.317446e-02 -4.761720e-02 -9.276254e-02 -5.351118e-02 2.178046e-03 -1.644309e-02 -1.112119e-01 -3.005215e-02 -5.017625e-02 -3.383610e-02 7.731490e-02 1.710632e-02 5.503765e-04 -3.140957e-03 6.377211e-03 -3.158201e-03 -1.098616e-02 -5.399507e-03 -1.322406e-02 -2.230443e-02 -1.701377e-02 -3.617690e-03 2.641011e-03 -5.873807e-03 2.778080e-03
<VARIANCE> 39
 6.911775e-01 1.188368e+00 1.925218e+00 3.727895e+00 5.704824e+00 3.641952e+00 3.324832e+00 6.859795e+00 6.447942e+00 4.781631e+00 3.946388e+00 3.550174e+00 5.095625e-01 4.005573e-02 9.743330e-02 1.378694e-01 3.254683e-01 3.613555e-01 2.525144e-01 2.876695e-01 4.919105e-01 3.759034e-01 5.312298e-01 4.806000e-01 4.021809e-01 3.725453e-02 6.132106e-03 1.795303e-02 2.886571e-02 5.510197e-02 5.830632e-02 5.237542e-02 5.415133e-02 9.932071e-02 5.823796e-02 1.079763e-01 8.659617e-02 7.514135e-02 6.861738e-03
<GCONST> 2.380189e+01
<STATE> 4
<MEAN> 39
 -1.444272e+01 5.830984e+00 2.278302e+00 -8.200859e-01 -1.220556e+00 3.461371e-01 -2.491249e+00 6.533897e+00 -2.625822e+00 7.442780e+00 1.749157e+00 -7.617553e-01 6.505068e+01 -2.131820e-02 -7.630935e-02 2.469727e-02 -1.637811e-03 -2.634076e-02 3.567239e-02 5.729144e-02 -2.806642e-02 -9.638079e-03 -7.838269e-02 3.469523e-03 -1.980554e-02 9.818642e-03 -3.006382e-03 -8.091128e-04 2.411841e-02 4.843152e-02 2.293012e-02 -3.466733e-02 2.162901e-02 3.368526e-04 -4.170096e-02 4.079117e-03 2.128647e-02 -2.117763e-02 5.884906e-03
<VARIANCE> 39
 1.540010e+00 2.504737e+00 3.307596e+00 6.210479e+00 1.480727e+01 1.634719e+01 7.776620e+00 1.276219e+01 7.779370e+00 7.122427e+00 7.377284e+00 6.895221e+00 8.260959e-01 8.570923e-02 1.819409e-01 4.530887e-01 3.143643e-01 5.309901e-01 6.534398e-01 8.444682e-01 1.173972e+00 6.314363e-01 4.085181e-01 7.570040e-01 5.423201e-01 6.192362e-02 1.535867e-02 3.520367e-02 9.227824e-02 3.489504e-02 6.225074e-02 1.174576e-01 1.775667e-01 2.487849e-01 1.135592e-01 7.440234e-02 1.602324e-01 1.004423e-01 1.333487e-02
<GCONST> 4.716605e+01
<TRANSP> 5
 0.000000e+00 1.000000e+00 0.000000e+00 0.000000e+00 0.000000e+00
 0.000000e+00 8.999998e-01 1.000002e-01 0.000000e+00 0.000000e+00
 0.000000e+00 0.000000e+00 9.570047e-01 4.299527e-02 0.000000e+00
 0.000000e+00 0.000000e+00 0.000000e+00 9.148327e-01 8.516735e-02
 0.000000e+00 0.000000e+00 0.000000e+00 0.000000e+00 0.000000e+00
<ENDHMM>
