~o
<STREAMINFO> 1 39
<VECSIZE> 39<NULLD><MFCC_D_A_0><DIAGC>
~h "sil"
<BEGINHMM>
<NUMSTATES> 5
<STATE> 2
<MEAN> 39
 -1.004386e+01 5.901868e+00 3.442977e+00 2.901241e+00 1.350446e+00 3.455218e+00 4.772643e-01 8.665266e+00 2.179473e-01 8.102433e+00 3.019053e+00 1.141274e+00 6.298009e+01 5.478505e-01 5.063967e-01 4.597449e-01 -1.958244e-02 2.633210e-02 -3.676306e-01 3.048484e-01 1.826651e-01 1.596974e-01 1.493665e-01 -4.769088e-02 3.834293e-01 -1.074636e+00 -1.868438e-01 -1.673705e-01 -1.604429e-01 -6.070691e-02 2.574080e-03 9.517229e-02 -1.288534e-01 -1.910669e-02 8.975742e-03 -4.398768e-02 -2.404837e-02 -1.206120e-01 3.301798e-01
<VARIANCE> 39
 5.308165e+01 8.391582e+00 9.396944e+00 1.350426e+01 1.791228e+01 1.971039e+01 1.978082e+01 1.227821e+01 2.316297e+01 7.748649e+00 1.233442e+01 1.137345e+01 5.127745e+01 1.973318e+00 1.143057e+00 1.490104e+00 7.814128e-01 1.129128e+00 9.535142e-01 1.282148e+00 7.093661e-01 1.074107e+00 6.722386e-01 5.682850e-01 8.348058e-01 4.732815e+00 1.795280e-01 1.431628e-01 2.585738e-01 1.268186e-01 1.542102e-01 1.146921e-01 2.126467e-01 1.282391e-01 1.607623e-01 1.101421e-01 1.052868e-01 9.834906e-02 4.697842e-01
<GCONST> 8.540233e+01
<STATE> 3
<MEAN> 39
 3.896722e+00 6.647137e+00 5.686563e+00 6.779783e+00 6.486722e+00 7.473444e+00 7.061523e+00 8.316445e+00 7.206622e+00 7.693229e+00 6.443581e+00 6.020191e+00 4.915114e+01 -4.439503e-02 3.246478e-02 -4.226277e-03 -1.365346e-02 1.170276e-02 3.244242e-03 -1.002603e-02 2.594352e-03 -1.403274e-02 1.480194e-02 3.031978e-04 -6.846698e-03 1.718695e-02 -8.217333e-02 8.452957e-03 -1.103079e-02 -1.535850e-02 1.202086e-03 -1.983813e-03 -2.487779e-02 8.094369e-03 -3.952897e-02 4.170312e-03 1.198538e-02 -2.407216e-02 6.708356e-02
<VARIANCE> 39
 2.773659e+01 2.265386e-01 3.021381e-01 3.209377e+00 3.522834e+00 4.516611e+00 7.392673e+00 2.421227e-01 7.458747e+00 4.474753e-01 2.925288e+00 2.832147e+00 1.971068e+01 6.540406e-02 5.341088e-02 8.678139e-03 1.181669e-02 4.666507e-02 2.225763e-02 2.952276e-02 7.870220e-02 4.953554e-02 5.624246e-02 4.224777e-02 1.587425e-02 1.997482e-02 6.627470e-02 1.082520e-02 7.489716e-03 8.668993e-03 8.021155e-03 1.086365e-02 8.856622e-03 2.641120e-02 2.420808e-02 6.153924e-03 1.381100e-02 7.346224e-03 4.462428e-02
<GCONST> -1.745361e+01
<STATE> 4
<MEAN> 39
 -1.422649e+01 5.897547e+00 3.450965e+00 -4.135579e-01 -7.631965e-01 -5.296641e-01 -1.995503e+00 7.567482e+00 -1.580726e+00 7.670588e+00 1.721301e+00 -5.162449e-01 6.442592e+01 -1.167650e-01 -2.391899e-03 -1.181494e-02 -3.446369e-02 -4.789217e-02 -2.870859e-02 -5.519114e-02 1.367550e-02 -4.937029e-02 2.607758e-02 -2.461559e-02 -5.563179e-02 1.091023e-01 1.305605e-02 -1.166551e-02 -7.135084e-03 8.393744e-03 4.511333e-03 3.858899e-03 7.570031e-03 1.621955e-03 1.092970e-02 -9.965627e-03 -6.408145e-03 1.258200e-03 -7.287763e-03
<VARIANCE> 39
 6.099635e+00 3.546299e+00 4.705076e+00 7.897606e+00 1.469913e+01 1.217603e+01 1.380277e+01 1.581751e+01 1.152589e+01 1.125621e+01 1.110597e+01 9.784586e+00 4.750823e+00 4.800822e-01 1.980202e-01 2.991732e-01 3.908145e-01 7.624786e-01 5.402271e-01 8.080915e-01 8.969709e-01 7.637815e-01 7.244198e-01 7.593026e-01 6.843644e-01 3.338099e-01 4.789485e-02 3.794577e-02 5.695253e-02 6.717067e-02 1.246130e-01 1.010487e-01 1.655447e-01 1.781232e-01 1.495939e-01 1.454871e-01 1.572605e-01 1.393292e-01 3.493823e-02
<GCONST> 6.122272e+01
<TRANSP> 5
 0.000000e+00 1.000000e+00 0.000000e+00 0.000000e+00 0.000000e+00
 0.000000e+00 7.930987e-01 2.069013e-01 0.000000e+00 0.000000e+00
 0.000000e+00 0.000000e+00 8.965547e-01 1.034453e-01 0.000000e+00
 0.000000e+00 0.000000e+00 0.000000e+00 9.753760e-01 2.462397e-02
 0.000000e+00 0.000000e+00 0.000000e+00 0.000000e+00 0.000000e+00
<ENDHMM>
