~o
<STREAMINFO> 1 39
<VECSIZE> 39<NULLD><MFCC_D_A_0><DIAGC>
~h "hai"
<BEGINHMM>
<NUMSTATES> 5
<STATE> 2
<MEAN> 39
 -1.311362e+01 7.729470e+00 5.149100e+00 3.021986e+00 2.126585e+00 3.833247e+00 1.634315e+00 1.204066e+01 1.070912e+00 1.143178e+01 4.544213e+00 1.878611e+00 6.487264e+01 -7.797638e-02 -7.234637e-02 -3.347797e-02 -5.310601e-02 -9.981436e-02 -1.595974e-01 -5.859928e-02 2.449071e-02 -1.451000e-01 -6.723706e-02 -6.189096e-02 -8.124445e-02 2.658601e-02 2.042827e-02 -1.213825e-02 1.516334e-02 -7.628735e-05 5.136332e-02 3.211357e-03 -4.116970e-03 1.333149e-02 2.039896e-02 -6.023982e-02 -1.367181e-02 3.042481e-02 -6.429176e-02
<VARIANCE> 39
 6.522884e-01 1.705342e+00 5.244466e+00 4.710826e+00 9.486477e+00 5.736332e+00 6.394486e+00 1.881584e+01 9.230442e+00 5.983947e+00 4.069843e+00 4.436961e+00 1.683533e+00 5.946444e-02 6.978139e-02 2.098586e-01 2.742884e-01 5.793114e-01 5.479621e-01 8.058394e-01 7.061825e-01 5.485318e-01 3.865883e-01 2.463848e-01 3.087281e-01 1.458924e-01 3.859342e-02 1.053788e-02 4.273900e-02 4.440670e-02 1.235773e-01 1.286302e-01 1.733522e-01 1.570598e-01 9.457126e-02 9.127373e-02 4.965661e-02 8.083557e-02 5.309014e-02
<GCONST> 4.007504e+01
<STATE> 3
<MEAN> 39
 -1.485772e+01 5.197507e+00 2.803339e+00 -6.069032e-01 -1.168635e+00 -5.818436e-01 -1.790217e+00 7.061559e+00 -1.680991e+00 7.289922e+00 1.010390e+00 -1.598686e+00 6.482748e+01 -1.575477e-02 3.971850e-03 3.965446e-02 9.424736e-03 -4.292977e-02 -2.521122e-02 4.479400e-02 -1.522916e-02 5.871310e-02 -6.540781e-02 4.335606e-03 2.307267e-02 -1.593249e-02 2.064654e-03 1.216749e-02 -1.163744e-02 1.556409e-03 -2.649425e-02 -4.491819e-03 2.474340e-03 -4.297461e-02 4.113629e-04 4.648617e-02 2.876365e-03 -1.541881e-02 1.157647e-02
<VARIANCE> 39
 1.451263e+00 1.851407e+00 2.501603e+00 6.680373e+00 9.244843e+00 8.876733e+00 8.662099e+00 1.300416e+01 1.144383e+01 1.170362e+01 9.168021e+00 9.120736e+00 3.675060e-01 5.879105e-02 1.276507e-01 1.548485e-01 1.610985e-01 5.894350e-01 4.314311e-01 5.662770e-01 7.159093e-01 6.020238e-01 8.108465e-01 8.806182e-01 4.322175e-01 4.249236e-02 1.007729e-02 2.506367e-02 3.155808e-02 2.719123e-02 9.815172e-02 1.042879e-01 1.455886e-01 1.528955e-01 1.262341e-01 1.671444e-01 1.793668e-01 7.360928e-02 1.270314e-02
<GCONST> 4.095600e+01
<STATE> 4
<MEAN> 39
 -1.529429e+01 4.629051e+00 2.231028e+00 -3.753820e-01 -2.452069e+00 -1.823941e+00 -2.731934e+00 5.112200e+00 -2.697502e+00 6.499089e+00 4.206047e-01 -2.963039e+00 6.495431e+01 4.028148e-02 -6.078252e-02 1.582890e-02 3.517477e-01 9.211872e-02 -1.287317e-01 -4.065077e-01 -5.027230e-02 -2.449278e-01 -7.786096e-02 -1.225150e-01 -1.521404e-03 1.032928e-01 5.312419e-02 6.915167e-02 3.866825e-02 -3.097208e-02 4.087271e-02 1.088338e-01 -9.288613e-02 1.179901e-01 -3.603448e-02 -6.859839e-02 -2.168097e-02 1.004306e-01 9.889880e-03
<VARIANCE> 39
 1.273907e+00 1.901938e+00 2.578437e+00 1.310435e+01 1.453422e+01 1.603631e+01 9.789673e+00 5.406934e+00 6.564226e+00 4.727978e+00 7.757729e+00 9.058928e+00 1.127183e+00 2.312960e-01 2.533130e-01 3.434086e-01 4.728703e-01 1.190276e+00 1.476426e+00 2.977405e-01 5.226237e-01 6.305887e-01 8.975756e-01 3.253137e-01 3.459895e-01 9.809085e-02 3.181325e-02 2.743170e-02 6.028175e-02 8.288348e-02 1.989519e-01 1.425182e-01 1.212303e-01 9.765325e-02 1.117453e-01 1.871010e-01 4.164043e-02 3.123927e-02 2.256995e-02
<GCONST> 4.763718e+01
<TRANSP> 5
 0.000000e+00 1.000000e+00 0.000000e+00 0.000000e+00 0.000000e+00
 0.000000e+00 9.215686e-01 7.843138e-02 0.000000e+00 0.000000e+00
 0.000000e+00 0.000000e+00 9.365079e-01 6.349207e-02 0.000000e+00
 0.000000e+00 0.000000e+00 0.000000e+00 7.647059e-01 2.352941e-01
 0.000000e+00 0.000000e+00 0.000000e+00 0.000000e+00 0.000000e+00
<ENDHMM>
