~o
<STREAMINFO> 1 39
<VECSIZE> 39<NULLD><MFCC_D_A_0><DIAGC>
~h "iie"
<BEGINHMM>
<NUMSTATES> 5
<STATE> 2
<MEAN> 39
 -1.467672e+01 5.690693e+00 2.645436e+00 -5.029532e-01 -1.542093e+00 -1.102922e+00 -3.338728e+00 6.672313e+00 -3.133184e+00 6.003732e+00 9.181825e-01 -1.816279e+00 6.472319e+01 6.142782e-02 3.752510e-02 7.083355e-03 1.663568e-01 1.356944e-01 1.396481e-02 5.440184e-02 2.394180e-01 -6.931174e-02 -9.004285e-02 -1.954816e-01 -7.890031e-02 8.629720e-03 2.649522e-03 8.460394e-03 5.316616e-03 -3.321883e-02 -6.456083e-03 -8.844656e-03 3.945867e-02 2.286898e-02 -1.105907e-02 6.889677e-02 5.256007e-02 1.091077e-01 -1.954283e-02
<VARIANCE> 39
 1.887327e+00 3.764462e+00 4.013813e+00 1.395704e+01 1.324251e+01 6.330177e+00 7.802171e+00 1.717789e+01 1.092715e+01 1.507020e+01 1.171028e+01 6.377973e+00 4.527546e-01 1.246206e-01 2.552687e-01 2.414635e-01 5.354488e-01 8.133433e-01 5.232068e-01 3.191924e-01 1.352514e+00 8.508047e-01 1.320081e+00 9.586009e-01 7.211135e-01 6.740594e-02 2.779533e-02 5.579865e-02 3.934128e-02 1.100097e-01 1.413543e-01 1.012168e-01 7.639752e-02 2.598951e-01 1.865840e-01 2.641527e-01 2.138542e-01 1.601967e-01 1.485564e-02
<GCONST> 5.480614e+01
<STATE> 3
<MEAN> 39
 -1.283897e+01 8.056493e+00 4.598605e+00 2.805509e+00 2.100450e+00 3.882339e+00 4.292635e-01 1.242896e+01 -3.006457e-01 1.101777e+01 4.191491e+00 1.887843e+00 6.505144e+01 -2.864487e-02 -2.755087e-02 -4.385311e-02 -7.825843e-02 -4.218881e-02 -1.291895e-02 -5.906270e-03 -1.028228e-01 -3.790560e-02 -4.729170e-02 -2.670734e-02 6.030716e-02 1.880832e-02 2.377506e-04 -1.663318e-03 7.281032e-03 -4.004391e-03 -1.104573e-02 -4.028031e-03 -1.152548e-02 -2.983700e-02 -1.408125e-02 -5.366076e-03 -5.579733e-04 -8.525362e-03 4.125818e-03
<VARIANCE> 39
 7.079505e-01 1.257904e+00 1.902279e+00 3.781109e+00 5.791404e+00 3.621831e+00 3.328781e+00 6.738851e+00 6.541951e+00 4.759718e+00 3.948509e+00 3.586288e+00 5.175389e-01 4.446701e-02 1.000126e-01 1.377931e-01 3.301899e-01 3.655390e-01 2.473933e-01 2.925178e-01 4.887305e-01 3.687448e-01 5.398085e-01 5.005745e-01 3.894628e-01 3.679302e-02 1.000000e-02 1.758381e-02 2.816284e-02 5.521894e-02 5.847484e-02 5.218072e-02 5.458761e-02 9.758665e-02 5.684708e-02 1.085307e-01 8.693092e-02 7.691018e-02 1.000000e-02
<GCONST> 2.487254e+01
<STATE> 4
<MEAN> 39
 -1.454718e+01 5.685956e+00 2.211086e+00 -1.088488e+00 -1.425967e+00 -3.169631e-01 -2.714419e+00 6.401584e+00 -2.978345e+00 7.321206e+00 1.564296e+00 -1.012298e+00 6.493479e+01 -1.248728e-02 -4.920505e-02 1.754657e-02 -9.976514e-03 -2.315408e-02 2.516749e-02 3.378525e-02 -4.250691e-02 7.052318e-03 -6.973263e-02 3.567581e-02 -7.962145e-03 1.381034e-02 4.358178e-03 2.459054e-03 1.757766e-02 3.025762e-02 1.240597e-02 -1.291954e-02 9.214675e-03 -7.327708e-03 -3.328601e-02 -5.566828e-03 1.144647e-02 -8.892600e-03 3.759387e-03
<VARIANCE> 39
 1.515735e+00 2.410830e+00 3.072803e+00 6.379421e+00 1.484636e+01 1.729935e+01 7.703354e+00 1.263140e+01 8.220710e+00 7.116239e+00 7.041186e+00 6.842456e+00 8.338339e-01 8.269338e-02 1.728838e-01 4.295205e-01 3.534686e-01 5.520934e-01 6.950407e-01 7.352787e-01 1.239866e+00 6.271999e-01 4.390942e-01 7.194759e-01 5.468988e-01 5.927256e-02 1.439601e-02 3.130253e-02 8.952750e-02 5.071540e-02 6.427881e-02 1.301587e-01 1.515713e-01 2.702257e-01 1.138336e-01 8.941688e-02 1.580083e-01 9.511833e-02 1.222866e-02
<GCONST> 4.733877e+01
<TRANSP> 5
 0.000000e+00 1.000000e+00 0.000000e+00 0.000000e+00 0.000000e+00
 0.000000e+00 8.684211e-01 1.315790e-01 0.000000e+00 0.000000e+00
 0.000000e+00 0.000000e+00 9.568965e-01 4.310345e-02 0.000000e+00
 0.000000e+00 0.000000e+00 0.000000e+00 9.295775e-01 7.042255e-02
 0.000000e+00 0.000000e+00 0.000000e+00 0.000000e+00 0.000000e+00
<ENDHMM>
