~o
<STREAMINFO> 1 39
<VECSIZE> 39<NULLD><MFCC_D_A_0><DIAGC>
~h "sil"
<BEGINHMM>
<NUMSTATES> 5
<STATE> 2
<MEAN> 39
 -1.004404e+01 5.901932e+00 3.442981e+00 2.901227e+00 1.350399e+00 3.455163e+00 4.771869e-01 8.665318e+00 2.178368e-01 8.102458e+00 3.019001e+00 1.141237e+00 6.298027e+01 5.478196e-01 5.063720e-01 4.597208e-01 -1.958828e-02 2.632074e-02 -3.676178e-01 3.048245e-01 1.826608e-01 1.596940e-01 1.493572e-01 -4.769520e-02 3.834113e-01 -1.074581e+00 -1.868349e-01 -1.673641e-01 -1.604374e-01 -6.070704e-02 2.578359e-03 9.516848e-02 -1.288430e-01 -1.910387e-02 8.979486e-03 -4.398360e-02 -2.404352e-02 -1.206052e-01 3.301610e-01
<VARIANCE> 39
 5.307942e+01 8.391456e+00 9.397064e+00 1.350399e+01 1.791196e+01 1.970991e+01 1.978052e+01 1.227852e+01 2.316263e+01 7.748742e+00 1.233440e+01 1.137322e+01 5.127551e+01 1.973234e+00 1.143042e+00 1.490134e+00 7.814275e-01 1.129134e+00 9.535264e-01 1.282159e+00 7.093767e-01 1.074105e+00 6.722452e-01 5.682849e-01 8.347903e-01 4.732646e+00 1.795210e-01 1.431640e-01 2.585824e-01 1.268204e-01 1.542121e-01 1.146939e-01 2.126535e-01 1.282409e-01 1.607645e-01 1.101435e-01 1.052869e-01 9.834813e-02 4.697733e-01
<GCONST> 8.540222e+01
<STATE> 3
<MEAN> 39
 3.896664e+00 6.647133e+00 5.686557e+00 6.779763e+00 6.486699e+00 7.473418e+00 7.061489e+00 8.316446e+00 7.206594e+00 7.693225e+00 6.443555e+00 6.020165e+00 4.915119e+01 -4.439622e-02 3.246463e-02 -4.227118e-03 -1.365463e-02 1.170155e-02 3.244304e-03 -1.002437e-02 2.594520e-03 -1.403094e-02 1.480276e-02 3.029348e-04 -6.847163e-03 1.718740e-02 -8.217336e-02 8.453173e-03 -1.103066e-02 -1.535920e-02 1.202453e-03 -1.982856e-03 -2.487722e-02 8.093545e-03 -3.953020e-02 4.169948e-03 1.198660e-02 -2.407233e-02 6.708338e-02
<VARIANCE> 39
 2.773753e+01 2.265553e-01 3.021532e-01 3.209470e+00 3.523010e+00 4.516823e+00 7.393016e+00 2.421344e-01 7.459004e+00 4.474835e-01 2.925451e+00 2.832373e+00 1.971146e+01 6.540602e-02 5.341211e-02 1.000000e-02 1.181727e-02 4.666655e-02 2.225840e-02 2.952376e-02 7.870024e-02 4.953582e-02 5.624561e-02 4.224759e-02 1.587460e-02 1.997529e-02 6.627426e-02 1.082541e-02 1.000000e-02 1.000000e-02 1.000000e-02 1.086414e-02 1.000000e-02 2.641190e-02 2.420842e-02 1.000000e-02 1.381095e-02 1.000000e-02 4.462397e-02
<GCONST> -1.574317e+01
<STATE> 4
<MEAN> 39
 -1.422652e+01 5.897516e+00 3.450933e+00 -4.135935e-01 -7.632332e-01 -5.297105e-01 -1.995567e+00 7.567418e+00 -1.580761e+00 7.670539e+00 1.721243e+00 -5.162760e-01 6.442593e+01 -1.167599e-01 -2.390753e-03 -1.181200e-02 -3.446117e-02 -4.789167e-02 -2.870770e-02 -5.518898e-02 1.367384e-02 -4.936914e-02 2.607787e-02 -2.461475e-02 -5.563007e-02 1.090984e-01 1.305557e-02 -1.166523e-02 -7.134455e-03 8.394070e-03 4.511316e-03 3.858014e-03 7.569505e-03 1.622693e-03 1.092970e-02 -9.965426e-03 -6.408192e-03 1.257929e-03 -7.287604e-03
<VARIANCE> 39
 6.099486e+00 3.546336e+00 4.705058e+00 7.897556e+00 1.469906e+01 1.217592e+01 1.380256e+01 1.581741e+01 1.152578e+01 1.125620e+01 1.110597e+01 9.784592e+00 4.750709e+00 4.800675e-01 1.980242e-01 2.991747e-01 3.908169e-01 7.624813e-01 5.402270e-01 8.080905e-01 8.969610e-01 7.637858e-01 7.244250e-01 7.593076e-01 6.843718e-01 3.338013e-01 4.789359e-02 3.794663e-02 5.695301e-02 6.717108e-02 1.246137e-01 1.010486e-01 1.655446e-01 1.781207e-01 1.495959e-01 1.454894e-01 1.572612e-01 1.393307e-01 3.493771e-02
<GCONST> 6.122266e+01
<TRANSP> 5
 0.000000e+00 1.000000e+00 0.000000e+00 0.000000e+00 0.000000e+00
 0.000000e+00 7.931035e-01 2.068965e-01 0.000000e+00 0.000000e+00
 0.000000e+00 0.000000e+00 8.965517e-01 1.034483e-01 0.000000e+00
 0.000000e+00 0.000000e+00 0.000000e+00 9.753762e-01 2.462380e-02
 0.000000e+00 0.000000e+00 0.000000e+00 0.000000e+00 0.000000e+00
<ENDHMM>
